{"dims": {"H": 8, "Hk": 2, "Hv": 4, "Dk": 4, "Dv": 4, "key_dim": 8, "value_dim": 16, "conv_dim": 32, "K": 4, "B": 1, "S": 1, "eps": 1e-06}, "in_proj_qkv": [-0.191353440284729, 0.9571007490158081, -0.8335821628570557, -0.33514952659606934, 0.24320721626281738, -0.01998734474182129, -0.3649463653564453, 0.6902256011962891, 0.4589543342590332, 0.8032616376876831, -0.35875701904296875, -0.05944859981536865, -0.13369715213775635, -0.47005951404571533, -0.5766788721084595, -0.5640631914138794, -0.27919697761535645, 0.2578122615814209, 0.5176057815551758, -0.6432738304138184, -0.4570891857147217, -0.6460195779800415, 0.8137812614440918, -0.38648104667663574, -0.9030704498291016, -0.5502389669418335, -0.737917423248291, 0.9303401708602905, 0.8975517749786377, 0.7758877277374268, -0.505734920501709, 0.9567340612411499, -0.8540947437286377, 0.8446040153503418, 0.9974664449691772, 0.7909064292907715, 0.08316349983215332, 0.28344476222991943, 0.5628451108932495, -0.2606050968170166, -0.9809752702713013, -0.44721055030822754, 0.3382847309112549, -0.17420363426208496, -0.19232380390167236, -0.025468111038208008, -0.7912700176239014, 0.8247967958450317, 0.06283950805664062, 0.23813211917877197, 0.4403212070465088, -0.43904221057891846, -0.7203342914581299, 0.22861671447753906, -0.4533524513244629, -0.16582632064819336, -0.7561813592910767, -0.7905005216598511, -0.3095618486404419, -0.2314314842224121, 0.7598848342895508, -0.09176504611968994, 0.9170752763748169, -0.9488489627838135, -0.19251716136932373, -0.705292820930481, -0.8853546380996704, 0.6618732213973999, -0.43631958961486816, -0.12310194969177246, -0.9448361396789551, 0.4857792854309082, 0.5259625911712646, 0.9856035709381104, -0.38065052032470703, 0.5479575395584106, 0.12800943851470947, -0.16003108024597168, 0.4858661890029907, 0.1656343936920166, 0.34142017364501953, -0.4447157382965088, -0.5170705318450928, -0.08996045589447021, -0.27329981327056885, 0.38641631603240967, 0.4583704471588135, 0.011231303215026855, 0.7593841552734375, 0.6801762580871582, 0.9892200231552124, -0.2945946455001831, -0.5231407880783081, 0.6154290437698364, 0.007369875907897949, 0.12116241455078125, 0.783973217010498, 0.01658451557159424, -0.008486509323120117, -0.49334847927093506, -0.9104437828063965, 0.526732325553894, -0.15684020519256592, -0.5088255405426025, -0.8229641914367676, -0.4380788803100586, 0.8446195125579834, 0.6819604635238647, 0.16724085807800293, 0.4281294345855713, 0.45623087882995605, -0.6585308313369751, -0.40128839015960693, 0.8877170085906982, -0.8050776720046997, 0.6850491762161255, 0.7825536727905273, -0.519550085067749, 0.20333898067474365, -0.7074497938156128, -0.6681643724441528, -0.8492648601531982, -0.6455270051956177, -0.6642625331878662, 0.7728133201599121, -0.15677976608276367, -0.19122719764709473, -0.005316019058227539, 0.2902578115463257, 0.4535396099090576, -0.138832688331604, -0.28305113315582275, 0.2703413963317871, -0.46284985542297363, 0.45660579204559326, 0.8739016056060791, 0.4905012845993042, 0.4516245126724243, 0.8076608180999756, 0.38578927516937256, -0.6509240865707397, -0.9751019477844238, -0.34274256229400635, -0.11173200607299805, 0.24065327644348145, -0.463314414024353, -0.9495168924331665, 0.3907407522201538, 0.5434393882751465, -0.08497810363769531, 0.8066831827163696, 0.16698062419891357, -0.8890578746795654, 0.631537675857544, 0.5248442888259888, -0.7729251384735107, -0.34131550788879395, 0.6570993661880493, 0.5464608669281006, 0.37462925910949707, -0.31244957447052, 0.7335799932479858, -0.6573168039321899, 0.6247375011444092, -0.9503504037857056, 0.5082091093063354, -0.7748593091964722, -0.24479472637176514, 0.9836130142211914, 0.9379454851150513, -0.6215218305587769, 0.9042583703994751, -0.4377087354660034, -0.8214223384857178, 0.19374728202819824, 0.28133177757263184, 0.6871778964996338, 0.9444824457168579, 0.7665090560913086, -0.04469740390777588, 0.844765305519104, 0.3355977535247803, 0.29140639305114746, 0.14370286464691162, 0.5689640045166016, -0.02692592144012451, -0.8875851631164551, 0.17116296291351318, 0.17039620876312256, -0.806037187576294, -0.38393139839172363, 0.8600144386291504, 0.5470027923583984, -0.08976233005523682, 0.025576114654541016, -0.6868463754653931, 0.8933635950088501, 0.9843686819076538, -0.3777918815612793, -0.13590478897094727, 0.3825838565826416, -0.8596905469894409, 0.3189859390258789, 0.6743090152740479, 0.31241726875305176, -0.41681230068206787, 0.6911686658859253, -0.5634526014328003, -0.05381953716278076, 0.6335535049438477, -0.21995902061462402, 0.2735097408294678, 0.2537679672241211, -0.328136682510376, 0.09785473346710205, 0.09785628318786621, 0.09624969959259033, -0.31436705589294434, 0.22831308841705322, -0.700946569442749, 0.4896249771118164, 0.8617194890975952, -0.2948477268218994, 0.9841086864471436, 0.12352561950683594, -0.7752983570098877, -0.2899109125137329, -0.04716813564300537, 0.39816224575042725, -0.7603754997253418, 0.13677823543548584, 0.8031355142593384, -0.3685568571090698, -0.11199939250946045, -0.4047001600265503, 0.6711716651916504, 0.6390968561172485, -0.40844035148620605, 0.6626943349838257, 0.5973366498947144, 0.8280963897705078, -0.3106116056442261, 0.17357516288757324, 0.3591243028640747, -0.5140374898910522, -0.9933055639266968, -0.9949967861175537, -0.8148742914199829, -0.19651710987091064, -0.9626820087432861, 0.7700493335723877, 0.9522156715393066, 0.3860281705856323, 0.10516047477722168, -0.10353946685791016, -0.2960512638092041], "in_proj_z": [-0.6562556028366089, 0.8396438360214233, 0.8756953477859497, -0.3682781457901001, 0.5705994367599487, 0.6218680143356323, 0.3492168188095093, -0.5270386934280396, 0.2937173843383789, 0.6822153329849243, 0.9186675548553467, -0.13439393043518066, 0.8880313634872437, -0.8116518259048462, -0.6114667654037476, 0.0658653974533081, -0.6691687107086182, -0.5096850395202637, -0.4197624921798706, -0.45915257930755615, 0.7394182682037354, 0.7026814222335815, 0.7154524326324463, -0.06785118579864502, -0.27589547634124756, 0.2592402696609497, -0.3211132287979126, -0.15894579887390137, -0.05795776844024658, -0.21137690544128418, 0.6669899225234985, -0.44428539276123047, -0.7203125953674316, -0.48248255252838135, 0.1547759771347046, -0.5208988189697266, -0.9404023885726929, -0.2963958978652954, -0.10488522052764893, 0.09107375144958496, -0.9072185754776001, -0.48840928077697754, -0.20506370067596436, 0.052631378173828125, 0.6158556938171387, -0.43399810791015625, -0.40629804134368896, 0.5289515256881714, -0.7686419486999512, -0.45535504817962646, 0.25857114791870117, 0.6451277732849121, 0.14903628826141357, 0.8465278148651123, 0.7960934638977051, 0.8282971382141113, -0.4242682456970215, 0.004535794258117676, -0.5054985284805298, 0.9577553272247314, -0.19035661220550537, 0.7087273597717285, -0.9308743476867676, 0.29387927055358887, 0.056627869606018066, 0.8724884986877441, 0.7668167352676392, -0.41351473331451416, 0.2906630039215088, 0.8312709331512451, 0.05512571334838867, -0.40565311908721924, -3.2782554626464844e-05, -0.31526899337768555, 0.053282737731933594, 0.6571551561355591, 0.7078232765197754, 0.3005634546279907, 0.12424051761627197, 0.2887023687362671, 0.24550068378448486, 0.6592229604721069, -0.15757226943969727, -0.6568210124969482, 0.6776139736175537, 0.009760141372680664, -0.21903705596923828, 0.10654771327972412, 0.8274132013320923, 0.18506205081939697, 0.7186410427093506, 0.05408143997192383, -0.8288521766662598, -0.5491864681243896, -0.19459712505340576, -0.16962409019470215, -0.023995518684387207, -0.9716185331344604, -0.11600816249847412, 0.5975644588470459, -0.5117537975311279, -0.08997213840484619, -0.9360357522964478, -0.7532563209533691, 0.8808915615081787, 0.3406327962875366, -0.4735151529312134, -0.537345290184021, -0.43972599506378174, -0.10171997547149658, 0.43119966983795166, 0.8473411798477173, 0.09226751327514648, 0.5350192785263062, -0.1828702688217163, -0.9637738466262817, -0.47531628608703613, -0.07226240634918213, -0.41849493980407715, 0.07678449153900146, 0.4170262813568115, -0.14341974258422852, 0.5760561227798462, -0.4174046516418457, -0.8407816886901855, 0.08010351657867432, 0.5226074457168579, 0.008409619331359863], "in_proj_a": [0.8194289207458496, -0.44505298137664795, -0.0030586719512939453, -0.6632879972457886, 0.1586165428161621, 0.6529440879821777, 0.5019491910934448, -0.24511396884918213, -0.11310076713562012, -0.6406097412109375, 0.6977735757827759, 0.40442848205566406, 0.5896061658859253, 0.5336782932281494, 0.22164511680603027, 0.6473718881607056, -0.3349071741104126, 0.8434984683990479, 0.34401440620422363, 0.1968376636505127, -0.13043653964996338, -0.5052744150161743, -0.6287086009979248, -0.18515384197235107, 0.4855656623840332, -0.5855920314788818, 0.5575892925262451, 0.5218542814254761, 0.15511488914489746, -0.8377960920333862, -0.13679146766662598, -0.624259352684021], "in_proj_b": [0.5325055122375488, 0.20089983940124512, -0.16154873371124268, -0.17738759517669678, 0.8549609184265137, 0.726726770401001, 0.5185137987136841, -0.10769522190093994, -0.8808413743972778, -0.7459040880203247, -0.2215942144393921, 0.40694987773895264, -0.02261674404144287, 0.0606536865234375, -0.8457578420639038, 0.9450798034667969, -0.0942230224609375, -0.9587035179138184, -0.0191648006439209, 0.13203680515289307, 0.0747532844543457, 0.5234347581863403, 0.8524869680404663, 0.194083571434021, -0.6248641014099121, 0.5680243968963623, -0.41937077045440674, 0.12358558177947998, -0.45374178886413574, -0.18788766860961914, -0.2429584264755249, 0.20288825035095215], "conv_weight": [-0.11673235893249512, 0.06435179710388184, 0.5562725067138672, -0.5671567916870117, 0.9434522390365601, 0.9310801029205322, 0.7203649282455444, -0.9461723566055298, -0.24790024757385254, 0.057250142097473145, 0.9811712503433228, -0.8308119773864746, -0.4705979824066162, -0.6345157623291016, 0.1809697151184082, 0.9314887523651123, -0.9153386354446411, -0.3421809673309326, -0.6330006122589111, 0.9449632167816162, -0.4613107442855835, 0.25024640560150146, 0.45733213424682617, -0.6677827835083008, 0.7639237642288208, 0.9603294134140015, 0.18640315532684326, 0.0957939624786377, 0.8259425163269043, 0.6987587213516235, -0.6650465726852417, -0.24200224876403809, -0.44969379901885986, 0.12826991081237793, -0.78327476978302, 0.609760046005249, 0.13863623142242432, 0.3434257507324219, 0.3471851348876953, -0.6437666416168213, -0.6538946628570557, -0.06286859512329102, -0.5499151945114136, 0.9458385705947876, 0.9486532211303711, -0.1814326047897339, 0.4968593120574951, -0.7866686582565308, -0.595118522644043, -0.9537729024887085, 0.07372844219207764, -0.5748140811920166, 0.7615091800689697, 0.7339694499969482, -0.6654084920883179, -0.882553219795227, -0.9291013479232788, -0.17605531215667725, -0.6094262599945068, -0.10912144184112549, -0.9508732557296753, -0.24907243251800537, 0.2604876756668091, -0.034853219985961914, 0.02461254596710205, 0.031284332275390625, 0.23917853832244873, 0.277492880821228, -0.9336051940917969, -0.36532604694366455, 0.854957103729248, -0.5775240659713745, 0.6891689300537109, 0.17829489707946777, -0.4068979024887085, -0.653744101524353, 0.38728785514831543, 0.8522531986236572, 0.9748588800430298, -0.36743223667144775, 0.8244365453720093, -0.7751580476760864, 0.6586438417434692, -0.8460640907287598, -0.8136448860168457, 0.11287009716033936, -0.7055695056915283, -0.7543418407440186, 0.11606323719024658, -0.3017590045928955, 0.8440377712249756, 0.5106079578399658, -0.832908034324646, 0.9862264394760132, 0.55591881275177, -0.09847819805145264, 0.5574778318405151, 0.3360060453414917, 0.7023427486419678, -0.5448775291442871, 0.5297995805740356, -0.04836082458496094, 0.5569368600845337, -0.5721302032470703, -0.06743752956390381, -0.2907906770706177, -0.5129578113555908, -0.5174020528793335, 0.4456521272659302, -0.9172642230987549, -0.800438642501831, 0.7957568168640137, -0.5795475244522095, 0.6840909719467163, 0.9454373121261597, -0.4017370939254761, -0.35229063034057617, -0.472170352935791, -0.36922168731689453, -0.1927729845046997, -0.36662757396698, 0.07346415519714355, 0.44860541820526123, 0.6454019546508789, -0.7292331457138062, 0.9446486234664917, 0.7039018869400024, -0.9453281164169312], "A_log": [1.179017424583435, 0.7857614755630493, 1.7147189378738403, 2.5949349403381348], "dt_bias": [-0.984810471534729, -0.9479379653930664, 0.9315656423568726, 0.310491681098938], "norm_weight": [0.7289775013923645, 1.261481523513794, 1.3717824220657349, 0.7173779010772705], "out_proj": [-0.32766127586364746, -0.7799288034439087, -0.3144841194152832, -0.8596442937850952, -0.3638291358947754, 0.4894280433654785, -0.22770702838897705, -0.8133550882339478, 0.22186625003814697, 0.5499546527862549, -0.18039143085479736, 0.45638513565063477, 0.07927381992340088, 0.9568705558776855, 0.09467709064483643, -0.2453521490097046, -0.956699013710022, -0.8860762119293213, -0.1870797872543335, -0.6298378705978394, -0.40438413619995117, 0.2876918315887451, -0.014584541320800781, 0.9103670120239258, 0.7132006883621216, 0.8693751096725464, -0.45612168312072754, -0.8199803829193115, 0.2242441177368164, -0.7275116443634033, -0.46778368949890137, 0.4495964050292969, 0.40650177001953125, 0.8502647876739502, -0.6119692325592041, 0.0585169792175293, 0.43021607398986816, 0.7240098714828491, -0.6782255172729492, -0.9247033596038818, 0.6328206062316895, -0.7033660411834717, -0.531855583190918, -0.0798872709274292, 0.3649245500564575, -0.6402634382247925, -0.8416348695755005, 0.4924592971801758, -0.37852680683135986, 0.45750319957733154, -0.5862448215484619, -0.9064903259277344, 0.3459421396255493, 0.4894007444381714, -0.36194586753845215, -0.8382657766342163, 0.260955810546875, -0.34298861026763916, 0.9566293954849243, -0.8198591470718384, -0.6382768154144287, -0.42411506175994873, 0.6163724660873413, -0.895200252532959, 0.4767962694168091, -0.7683689594268799, -0.3609999418258667, 0.21895933151245117, 0.41509318351745605, -0.182098388671875, 0.291110634803772, -0.5856318473815918, -0.790566086769104, -0.508303165435791, 0.14317035675048828, 0.7839323282241821, 0.09963858127593994, 0.41718149185180664, 0.47214198112487793, -0.27657461166381836, 0.6515003442764282, 0.8615932464599609, -0.5517560243606567, 0.9046332836151123, -0.08798348903656006, 0.47199785709381104, 0.8633681535720825, -0.6260125637054443, 0.015604853630065918, 0.6650794744491577, -0.32171082496643066, -0.10841906070709229, -0.9001381397247314, -0.02755606174468994, -0.8240965604782104, -0.6782954931259155, 0.7677129507064819, -0.7008646726608276, 0.9696779251098633, 0.6060628890991211, 0.6987402439117432, 0.15281152725219727, -0.1875896453857422, 0.04912126064300537, -0.7728062868118286, 0.3933485746383667, -0.4385237693786621, 0.7015776634216309, 0.7463372945785522, 0.5672125816345215, 0.5289084911346436, -0.6085395812988281, -0.05557703971862793, 0.035265207290649414, 0.3732033967971802, 0.7222766876220703, -0.766614556312561, -0.6179361343383789, 0.6031495332717896, -0.04336512088775635, 0.41354966163635254, -0.2693042755126953, -0.3747364282608032, -0.041573286056518555, -0.09511864185333252, -0.44939184188842773, 0.9670920372009277, -0.3106764554977417], "x": [-0.13289225101470947, 0.44662177562713623, 0.7740482091903687, -0.6409294605255127, -0.8109536170959473, -0.6415319442749023, -0.7943187952041626, -0.16180932521820068], "mixed": [0.016257405281066895, 1.0174877643585205, 1.166447401046753, -2.2719271183013916, 0.10170227289199829, 0.9714961051940918, 1.5446603298187256, -1.47612726688385, -0.29423001408576965, -0.6894268989562988, -0.9787455797195435, 1.1613500118255615, 0.8201815485954285, -0.5357218980789185, -0.9607860445976257, -0.7378109097480774, -0.18845707178115845, 1.9581806659698486, -2.278286933898926, 0.6624107360839844, 0.5597004294395447, -0.08995044231414795, -0.2026156187057495, -0.339652955532074, -0.6866675615310669, -1.0638668537139893, -0.1442941129207611, -0.4021299183368683, -0.6305406093597412, -1.623769760131836, 1.631705403327942, -0.6684545278549194], "conv_out": [-0.004588994663208723, -0.2660320997238159, -0.266560435295105, -0.22755253314971924, 0.05035971477627754, -0.2226969301700592, 0.07944831997156143, 0.21018068492412567, -0.08167941123247147, 0.2703685164451599, -0.26271510124206543, -0.2615303099155426, -0.18116608262062073, 0.291268914937973, 0.05516664311289787, 0.013022850267589092, -0.025464197620749474, -0.2759338915348053, 1.2153500318527222, -0.10695840418338776, -0.18173523247241974, 0.03507727384567261, -0.04905511066317558, 0.017003878951072693, 0.22166921198368073, 0.3941977024078369, 0.03872184455394745, -0.1346154361963272, 0.14261221885681152, 0.18080660700798035, 0.7807419896125793, 0.4125872850418091], "core_recur": [-0.0006322531262412667, -0.006851190701127052, 0.03017604723572731, -0.0026556807570159435, -0.011885085143148899, 0.0022939767222851515, -0.003208096604794264, 0.001112016150727868, -0.010992763563990593, -0.019548598676919937, -0.0019202488474547863, 0.006675693206489086, -0.02746095135807991, -0.03481553867459297, -0.15033715963363647, -0.0794464722275734], "core_out": [-0.005534455645829439, -0.5888258218765259, -0.6837320923805237, 0.014286721125245094, -1.4665769338607788, -0.053790558129549026, 0.17939221858978271, -0.025374066084623337, -0.20846258103847504, 0.5777773857116699, -0.01954450085759163, 0.5846163034439087, -0.060093216598033905, 0.010949385352432728, -2.7679011821746826, -0.36245471239089966], "expected_output": [1.5252649784088135, 2.1913726329803467, 0.6957674026489258, -2.5551936626434326, -0.7135335206985474, 3.0582337379455566, -1.7887216806411743, -1.8206722736358643]}